{"frameRate":30,"isGlobal":0,"armature":[{"aabb":{"width":915.8117101693499,"y":-1487.997893041539,"height":1487.997893041539,"x":-517.4426470588235},"type":"Armature","frameRate":30,"skin":[{"slot":[{"display":[{"vertices":[85.77,-999.65,100.24,-955.07,114.71,-910.49,110.08,-881.93,122.82,-839.47,145.59,-837.54,147.91,-823.26,158.33,-817.46,161.04,-796.24,178.24,-779,196.53,-779.01,190.96,-793.34,206.87,-779,217.79,-779.01,215.08,-794.91,198.86,-810.29,195.21,-817.06,202.09,-810.3,222.68,-802.08,228.82,-805.41,228.83,-814.36,207.91,-828.18,220.39,-822.67,228.83,-821.63,228.82,-832.96,218.53,-843.46,203.34,-852.41,196.9,-872.11,211.56,-879.19,211.46,-898.95,203.87,-916.42,175.27,-922.76,169.46,-963.12,163.66,-1003.48,153.05,-1023.55,136.33,-1041.96,119.62,-1060.36,100.29,-1081.56,80.98,-1102.76,68.91,-1120.02,63.16,-1145.26,49.74,-1162.63,34.03,-1170,7.1,-1170.01,-5.07,-1162.11,-6.18,-1147.65,-6.18,-1125.55,0.59,-1106.94,24.83,-1082.14,56.51,-1044.38,143.85,-889.04,91.6,-1042.72,115.3,-1006.69,141.89,-959.21,151.08,-911.01,158.21,-870.54,173.03,-839.47,180.58,-805.45,176.57,-820.19,190.4,-825.1,200.42,-832.38,168.38,-814.73,172.2,-800.89,178.03,-793.62,186.04,-819.46,190.95,-803.81,199.14,-796.89,197.14,-826.74,206.05,-817.09,203.15,-840.02,213.34,-833.65,173.49,-879.25,55.1,-1095.72,14.07,-1133.08,44.26,-1129.74,142.04,-1006.97],"uvs":[0.39123,0.43568,0.45282,0.5497,0.51442,0.66372,0.49471,0.73678,0.54891,0.84537,0.64582,0.85031,0.65568,0.88683,0.70003,0.90164,0.71153,0.95594,0.78476,1,0.8626,1,0.83886,0.96334,0.90657,1,0.95304,1,0.94153,0.95935,0.87249,0.91998,0.857,0.90269,0.88621,0.91998,0.97383,0.94099,1,0.93248,1,0.90961,0.91099,0.87423,0.9641,0.88833,1,0.89099,1,0.86201,0.9562,0.83514,0.89159,0.81227,0.86415,0.76185,0.92655,0.74377,0.9261,0.69324,0.8938,0.64856,0.7721,0.63233,0.74739,0.52912,0.72269,0.42591,0.67755,0.37457,0.60641,0.32751,0.53528,0.28044,0.45307,0.22621,0.37087,0.17199,0.31953,0.12784,0.29506,0.06329,0.23797,0.01887,0.17115,0,0.05653,0,0.00475,0.0202,0,0.05717,0,0.11368,0.02879,0.16129,0.13194,0.2247,0.26676,0.32128,0.63841,0.71859,0.41606,0.32555,0.51692,0.41769,0.63004,0.53911,0.66919,0.66239,0.69951,0.7659,0.76257,0.84535,0.79469,0.93238,0.77766,0.89468,0.83651,0.88211,0.87911,0.8635,0.7428,0.90865,0.75907,0.94402,0.78385,0.96264,0.81793,0.89654,0.83884,0.93657,0.87369,0.95426,0.86517,0.87792,0.90312,0.90259,0.89073,0.84395,0.9341,0.86024,0.76451,0.74363,0.26075,0.18997,0.08616,0.09441,0.21466,0.10297,0.63071,0.41697],"edges":[45,46,46,47,47,48,48,49,49,0,0,1,1,2,2,3,3,4,4,5,5,6,6,7,7,8,8,9,9,10,10,11,11,12,12,13,13,14,14,15,15,16,16,17,17,18,18,19,19,20,20,21,21,22,22,23,23,24,24,25,25,26,26,27,27,28,28,29,29,30,30,31,31,32,32,33,33,34,34,35,35,36,36,37,37,38,38,39,39,40,40,41,41,42,42,43,43,44,44,45],"path":"Layer 4","bonePose":[9,0.6113889363147474,0.7913302525190866,-0.7913302525190866,0.6113889363147474,21.23175444898988,-1143.7472110930348,11,0.29253860693525413,0.9562537129090692,-0.9562537129090692,0.29253860693525413,122.46553452398578,-1012.7187478809244,15,0.26404139297326823,0.9645113492316904,-0.9645113492316904,0.26404139297326823,164.07037520231762,-876.7203448309966,21,0.5824067603951814,0.8128975122646086,-0.8128975122646086,0.5824067603951814,178.34973373431197,-824.5595710645468],"triangles":[70,22,24,25,70,24,18,19,20,24,22,23,68,17,18,14,12,13,70,21,22,69,70,25,26,69,25,66,12,14,29,27,28,69,21,70,69,60,21,71,27,29,30,71,29,31,71,30,67,68,21,60,67,21,67,16,68,16,17,68,65,66,15,26,56,69,27,56,26,56,60,69,56,59,60,71,56,27,59,67,60,59,16,67,65,11,66,16,65,15,64,65,16,11,9,10,59,64,16,55,56,71,54,71,31,64,57,65,65,57,11,57,63,11,63,9,11,58,64,59,56,58,59,58,57,64,54,50,71,32,53,31,58,61,57,61,62,57,62,63,57,53,54,31,56,7,58,7,61,58,63,8,9,62,8,63,33,53,32,55,5,56,75,53,33,6,7,56,5,6,56,61,8,62,50,55,71,7,8,61,34,75,33,53,2,54,4,5,55,50,4,55,3,4,50,75,52,53,35,75,34,1,2,53,2,50,54,35,52,75,52,1,53,2,3,50,36,51,35,51,52,35,0,1,52,37,51,36,51,0,52,38,72,37,49,51,37,72,49,37,49,0,51,39,72,38,72,48,49,40,74,39,74,72,39,41,74,40,74,48,72,47,48,74,73,47,74,42,73,74,42,74,41,43,73,42,44,45,43,43,45,73,46,47,73,45,46,73,66,11,12,15,66,14,68,18,20,21,68,20],"type":"mesh","transform":{},"slotPose":[1,0,0,1,0,0],"userEdges":[],"width":235,"height":391,"name":"Layer 4","weights":[2,9,0.63759,11,0.36241,2,9,0.01329,11,0.98671,2,11,0.97268,15,0.02732,2,11,0.74487,15,0.25513,2,11,0.21228,15,0.78772,3,11,0.05342,15,0.93282,21,0.01376,3,11,0.00271,15,0.86057,21,0.13673,2,15,0.58153,21,0.41847,2,15,0.03449,21,0.96551,1,21,1,1,21,1,1,21,1,1,21,1,1,21,1,1,21,1,2,15,0.01028,21,0.98972,2,15,0.1117,21,0.8883,2,15,0.1162,21,0.8838,2,15,0.00387,21,0.99613,1,21,1,2,15,0.00983,21,0.99017,2,15,0.42226,21,0.57774,2,15,0.57239,21,0.42761,2,15,0.57955,21,0.42045,2,15,0.58662,21,0.41338,2,15,0.6294,21,0.3706,3,11,0.01363,15,0.82811,21,0.15826,3,11,0.30605,15,0.68852,21,0.00542,2,11,0.55877,15,0.44123,2,11,0.72712,15,0.27288,2,11,0.85748,15,0.14252,2,11,0.99087,15,0.00913,1,11,1,2,9,0.03357,11,0.96643,2,9,0.34608,11,0.65392,2,9,0.90728,11,0.09272,1,9,1,1,9,1,1,9,1,1,9,1,1,9,1,1,9,1,1,9,1,1,9,1,1,9,1,1,9,1,1,9,1,1,9,1,1,9,1,1,9,1,2,11,0.90975,15,0.09025,1,9,1,2,9,0.41584,11,0.58416,1,11,1,2,11,0.99987,15,0.00013,2,11,0.19149,15,0.80851,1,15,1,2,15,0.00175,21,0.99825,2,15,0.19946,21,0.80054,2,15,0.3714,21,0.6286,2,15,0.55144,21,0.44856,2,15,0.27043,21,0.72957,2,15,0.02018,21,0.97982,1,21,1,2,15,0.03123,21,0.96877,1,21,1,1,21,1,2,15,0.40322,21,0.59678,2,15,0.15598,21,0.84402,2,15,0.68879,21,0.31121,2,15,0.5712,21,0.4288,2,11,0.47901,15,0.52099,1,9,1,1,9,1,1,9,1,2,9,0.0925,11,0.9075]}],"name":"Layer 4"},{"display":[{"vertices":[-34.16,-1335,-34.16,-1299.16,0.29,-1234.28,58.32,-1175.68,104.12,-1154.06,149.92,-1132.43,219.91,-1123.9,273.97,-1120.46,318.91,-1103.95,374.67,-1068.1,399.81,-1063.95,399.81,-1090.28,370.18,-1135.24,340.55,-1180.19,259.18,-1212.07,147.09,-1222.33,74.83,-1239.97,25.89,-1283.79,-3.12,-1335,163.27,-1179.36,298.4,-1151.01,227.49,-1153.38,91.38,-1201.04],"uvs":[0,0,0,0.13227,0.07939,0.37162,0.21312,0.58788,0.31866,0.66767,0.4242,0.74746,0.58546,0.77895,0.71001,0.79155,0.81358,0.85244,0.94207,0.98471,1,1,1,0.90283,0.9317,0.73696,0.8634,0.57109,0.67592,0.45351,0.41764,0.41572,0.25114,0.35063,0.13839,0.18896,0.07153,0,0.45494,0.57425,0.76631,0.67883,0.60293,0.67012,0.28928,0.49433],"edges":[0,1,1,2,2,3,3,4,4,5,5,6,6,7,7,8,8,9,9,10,10,11,11,12,12,13,13,14,14,15,15,16,16,17,17,18,18,0],"path":"Layer 3","bonePose":[17,0.6193680389092177,0.7851007784849979,-0.7851007784849979,0.6193680389092177,-23.365537078242816,-1310.3902438225289,22,0.7681717916741637,0.6402437805056018,-0.6402437805056018,0.7681717916741637,26.430781991670404,-1247.1400817113738,25,0.9823199399763948,0.18720987026535868,-0.18720987026535868,0.9823199399763948,93.15680878642452,-1192.3594660869967,27,0.9857328610198623,0.16831733928979675,-0.16831733928979675,0.9857328610198623,197.7345895963115,-1172.4291032985466,30,0.8249162373260137,0.5652549879442832,-0.5652549879442832,0.8249162373260137,282.3955681619371,-1157.475852537903],"triangles":[9,10,11,12,9,11,12,8,9,13,20,12,20,8,12,14,20,13,20,7,8,21,7,20,14,21,20,21,6,7,19,21,14,15,19,14,19,6,21,19,5,6,15,22,19,22,4,19,4,5,19,16,22,15,22,3,4,16,3,22,2,3,16,17,2,16,1,2,17,18,1,17,0,1,18],"type":"mesh","transform":{},"slotPose":[1,0,0,1,0,0],"userEdges":[],"width":434,"height":271,"name":"Layer 3","weights":[1,17,1,1,17,1,2,17,0.7343,22,0.2657,1,22,1,2,22,0.37456,25,0.62544,3,22,0.01225,25,0.95592,27,0.03183,3,25,0.09475,27,0.90253,30,0.00273,2,27,0.40963,30,0.59037,1,30,1,1,30,1,1,30,1,1,30,1,1,30,1,2,27,0.00888,30,0.99112,3,25,0.0028,27,0.98776,30,0.00944,2,25,0.99961,27,0.00039,2,22,0.8431,25,0.1569,2,17,0.99227,22,0.00773,1,17,1,2,25,0.99995,27,0.00005,1,30,1,2,25,0.01464,27,0.98536,1,25,1]}],"name":"Layer 3"},{"display":[{"path":"Layer 13","type":"image","name":"Layer 13","transform":{"y":-2.88,"x":6.11}}],"name":"Layer 13"},{"display":[{"vertices":[-74.17,-1338,-74.18,-1275.23,-60.04,-1246.53,-45.9,-1217.82,-19.64,-1188.45,11.06,-1165.3,48.44,-1156.99,75.59,-1156.99,97.84,-1169.75,115.82,-1197.33,115.82,-1228.04,98.29,-1272.53,70.48,-1298.35,42.66,-1324.16,57.79,-1282.77,76.93,-1240.05,75.15,-1222.25,67.14,-1204.46,51.11,-1187.55,23.07,-1192,-2.73,-1213.81,-24.53,-1246.75,-47.22,-1297.92,-63.23,-1338,-51.43,-1266.59,-64.7,-1312.22,78.66,-1267.93,89.11,-1246.13],"uvs":[0,0,0,0.3468,0.07445,0.50538,0.14889,0.66395,0.28708,0.82622,0.44868,0.95406,0.64542,1,0.78829,1,0.90539,0.92948,1,0.77705,1,0.60741,0.90773,0.36155,0.76135,0.21895,0.61497,0.07636,0.6946,0.305,0.79531,0.54103,0.78594,0.63937,0.74379,0.73771,0.65947,0.83114,0.51192,0.80655,0.37608,0.68608,0.26131,0.50415,0.14187,0.22141,0.05755,0,0.11972,0.39456,0.04983,0.14243,0.80439,0.38703,0.85939,0.5075],"edges":[0,1,1,2,2,3,3,4,4,5,5,6,6,7,7,8,8,9,9,10,10,11,11,12,12,13,13,14,14,15,15,16,16,17,17,18,18,19,19,20,20,21,21,22,22,23,23,0],"path":"Layer 11","bonePose":[19,0.29070219359825256,0.9568135840576072,-0.9568135840576072,0.29070219359825256,-59.422908728030734,-1304.6473482367576,23,0.5545539868777074,0.8321477486829123,-0.8321477486829123,0.5545539868777074,-41.19297416748432,-1244.645568380505,26,0.7662687716479268,0.6425201705761285,-0.6425201705761285,0.7662687716479268,-17.197423155285914,-1208.638535294995,28,0.9915357442298908,0.12983400138051793,-0.12983400138051793,0.9915357442298908,15.920664527587626,-1181.2734120862556,29,0.6518337253008785,-0.758361915288722,0.758361915288722,0.6518337253008785,67.28504425470483,-1175.031738012058,31,0.07027878747348915,-0.9975273891133296,0.9975273891133296,0.07027878747348915,93.2092313850432,-1205.74496352862,32,-0.5227961604415267,-0.8524577260061622,0.8524577260061622,-0.5227961604415267,95.13284125105284,-1240.305228647444],"triangles":[17,8,9,16,17,9,16,9,10,27,16,10,11,27,10,17,18,7,15,16,27,26,27,11,12,26,11,17,7,8,12,14,26,26,15,27,18,6,7,14,15,26,13,14,12,19,5,6,19,6,18,4,5,19,20,4,19,22,24,21,3,4,20,21,3,20,23,25,22,2,3,21,24,2,21,1,24,22,25,1,22,1,2,24,0,25,23,0,1,25],"type":"mesh","transform":{},"slotPose":[1,0,0,1,0,0],"userEdges":[],"width":190,"height":181,"name":"Layer 11","weights":[1,19,1,1,19,1,2,19,0.88609,23,0.11391,2,19,0.00028,23,0.99972,2,23,0.03229,26,0.96771,2,26,0.4313,28,0.5687,1,28,1,2,28,0.40499,29,0.59501,1,29,1,2,29,0.51657,31,0.48343,2,29,0.00029,31,0.99971,1,32,1,1,32,1,1,32,1,1,32,1,3,29,0.00272,31,0.08541,32,0.91187,3,29,0.18816,31,0.57628,32,0.23556,4,28,0.07118,29,0.77683,31,0.1374,32,0.01459,2,28,0.85993,29,0.14007,2,26,0.34624,28,0.65376,2,23,0.20854,26,0.79146,2,19,0.21884,23,0.78116,1,19,1,1,19,1,1,19,1,1,19,1,1,32,1,1,32,1]}],"name":"Layer 11"},{"display":[{"vertices":[-138.17,-1282.14,-138.18,-1183.89,-138.2,-1085.64,-138.21,-980.18,-116.53,-928.56,-100.81,-990.64,-61.18,-915.84,6.88,-851.5,-5.83,-901.61,51.01,-837.28,49.96,-874.55,61.65,-795.99,73.35,-795.98,100.51,-853.74,106.74,-881.38,106.73,-798.71,149.31,-831.32,180.53,-881.93,198.23,-948.41,208.92,-914.79,213.65,-851.3,233.56,-866.48,247.52,-919.02,244.54,-976.04,257.74,-939.68,275.65,-865.48,285.87,-903.82,289.11,-964.83,276.14,-1016.88,265.43,-1046.51,292.07,-989.73,296.05,-1036.05,284.11,-1084.62,253.99,-1138.42,198.98,-1182.24,154.51,-1212.9,113.92,-1228.83,83.55,-1258.22,65.5,-1306.16,45.84,-1339.03,32.64,-1364.68,6.76,-1384.99,-37.08,-1385,-62.89,-1385.01,-94.76,-1373.77,-105.96,-1348.13,-103.48,-1318.99,-12.7,-1302.12,90.32,-1003.06,-18.95,-1096.45,189.83,-1091.9,41.98,-1172.74,-82.46,-1191.77],"uvs":[0,0.17465,0,0.34146,0,0.50827,0,0.68733,0.04988,0.77496,0.08599,0.66955,0.17713,0.79655,0.3336,0.90576,0.30437,0.82068,0.43506,0.92989,0.43264,0.86663,0.45954,1,0.48644,1,0.54884,0.90194,0.56315,0.85501,0.56315,0.99537,0.66103,0.93998,0.7328,0.85406,0.77344,0.74118,0.79805,0.79825,0.80893,0.90606,0.85472,0.88027,0.88678,0.79107,0.87991,0.69426,0.91025,0.75598,0.95146,0.88196,0.97493,0.81686,0.98237,0.71328,0.95251,0.62492,0.9279,0.57461,0.98914,0.671,0.9983,0.59236,0.97083,0.50989,0.90157,0.41857,0.7751,0.34418,0.67284,0.29215,0.57953,0.26509,0.5097,0.21521,0.46821,0.13382,0.42298,0.07802,0.39265,0.03448,0.33312,0,0.23237,0,0.17304,0,0.09977,0.01908,0.07401,0.06262,0.07974,0.11208,0.28843,0.14071,0.52537,0.64843,0.27413,0.4899,0.75409,0.49757,0.41417,0.36034,0.1281,0.32808],"edges":[0,1,1,2,2,3,3,4,4,5,5,6,6,7,7,8,8,9,9,10,10,11,11,12,12,13,13,14,14,15,15,16,16,17,17,18,18,19,19,20,20,21,21,22,22,23,23,24,24,25,25,26,26,27,27,28,28,29,29,30,30,31,31,32,32,33,33,34,34,35,35,36,36,37,37,38,38,39,39,40,40,41,41,42,42,43,43,44,44,45,45,46,46,0],"path":"Layer 10","bonePose":[20,0.3443152222520041,0.9388541035355564,-0.9388541035355564,0.3443152222520041,-40.5601530964571,-1300.805141841529,24,0.3443152222520041,0.9388541035355564,-0.9388541035355564,0.3443152222520041,44.65786441091392,-1068.4387512164787],"triangles":[24,26,27,32,29,31,23,24,27,50,29,32,33,50,32,29,23,28,50,23,29,50,18,23,19,21,22,18,19,22,34,50,33,50,48,18,35,50,34,35,51,50,14,17,18,48,14,18,51,48,50,14,16,17,51,49,48,36,51,35,8,10,48,48,10,14,37,51,36,10,13,14,5,8,48,49,5,48,38,47,37,47,51,37,5,6,8,39,47,38,47,52,51,40,47,39,52,49,51,41,47,40,8,6,7,42,47,41,2,5,49,42,43,47,43,46,47,46,52,47,46,0,52,45,46,43,52,2,49,44,45,43,1,2,52,3,4,5,2,3,5,0,1,52,10,8,9,11,12,13,10,11,13,14,15,16,19,20,21,23,18,22,24,25,26,28,23,27,29,30,31],"type":"mesh","transform":{},"slotPose":[1,0,0,1,0,0],"userEdges":[],"width":435,"height":589,"name":"Layer 10","weights":[1,20,1,2,20,0.98654,24,0.01346,2,20,0.79461,24,0.20539,2,20,0.49699,24,0.50301,2,20,0.48587,24,0.51413,2,20,0.44948,24,0.55052,2,20,0.08967,24,0.91033,2,20,0.0051,24,0.9949,2,20,0.0191,24,0.9809,1,24,1,1,24,1,1,24,1,1,24,1,1,24,1,1,24,1,1,24,1,1,24,1,1,24,1,2,20,0.01185,24,0.98815,2,20,0.00303,24,0.99697,1,24,1,1,24,1,2,20,0.00366,24,0.99634,2,20,0.03715,24,0.96285,2,20,0.01496,24,0.98504,1,24,1,2,20,0.00259,24,0.99741,2,20,0.02571,24,0.97429,2,20,0.08289,24,0.91711,2,20,0.15942,24,0.84058,2,20,0.15726,24,0.84274,2,20,0.16411,24,0.83589,2,20,0.2172,24,0.7828,2,20,0.3526,24,0.6474,2,20,0.58174,24,0.41826,2,20,0.77734,24,0.22266,2,20,0.91009,24,0.08991,2,20,0.98419,24,0.01581,2,20,0.99983,24,0.00017,1,20,1,1,20,1,1,20,1,1,20,1,1,20,1,1,20,1,1,20,1,1,20,1,1,20,1,2,20,0.00342,24,0.99658,2,20,0.89189,24,0.10811,2,20,0.3248,24,0.6752,2,20,0.98819,24,0.01181,2,20,0.99512,24,0.00488]}],"name":"Layer 10"},{"display":[{"vertices":[-151.3,-1107.83,-187.78,-1080.48,-224.24,-1053.13,-319.59,-1056.79,-331.05,-1071.89,-360.4,-1068.76,-361.78,-1057.78,-376.28,-1072.29,-385.88,-1068.75,-410.53,-1080.32,-416.21,-1066.02,-409.55,-1054.64,-426.6,-1051.5,-444.63,-1057.97,-463.45,-1055.62,-473.2,-1041.71,-462.27,-1038.18,-459.53,-1029.75,-435.61,-1027.21,-415.42,-1014.47,-392.1,-1017.41,-366.63,-1011.92,-365.25,-997.22,-358.98,-988.02,-330.8,-988.02,-324.73,-1002.02,-208.11,-988.89,-147.46,-1029.04,-86.82,-1069.18,-56.19,-1103.01,-56.51,-1134.57,-68.86,-1151,-95.91,-1151.01,-130.4,-1138.89,-110.61,-1105.57,-216.94,-1024.01,-326.49,-1024.32,-353.91,-1029.38,-397.86,-1039.87,-154.13,-1064.01,-269.42,-1014.74,-124.45,-1088.33,-271.25,-1034.57],"uvs":[0.77192,0.26491,0.68446,0.43272,0.597,0.60053,0.36836,0.57815,0.34087,0.48546,0.27048,0.5047,0.26719,0.57204,0.23241,0.48305,0.20938,0.5047,0.15028,0.43376,0.13665,0.52153,0.15263,0.59128,0.11174,0.61051,0.0685,0.57083,0.02337,0.58526,0,0.67064,0.02619,0.69228,0.03277,0.74399,0.09012,0.75962,0.13853,0.83778,0.19446,0.81974,0.25557,0.85341,0.25886,0.94359,0.2739,1,0.34147,1,0.35605,0.91409,0.63571,0.99466,0.78113,0.74831,0.92656,0.50197,1,0.29439,0.99922,0.1008,0.96961,0,0.90475,0,0.82202,0.07435,0.86949,0.27876,0.61452,0.77919,0.35181,0.77736,0.28606,0.74628,0.18067,0.6819,0.76514,0.53371,0.48868,0.8361,0.8363,0.3845,0.48428,0.71442],"edges":[15,16,16,17,17,18,18,19,19,20,20,21,21,22,22,23,23,24,24,25,25,26,26,27,27,28,28,29,29,30,30,31,31,32,32,33,33,0,0,1,1,2,2,3,3,4,4,5,5,6,6,7,7,8,8,9,9,10,10,11,11,12,12,13,13,14,14,15],"path":"Layer 5","bonePose":[10,-0.7943086013543275,0.6075144819792628,-0.6075144819792628,-0.7943086013543275,-93.51163953312604,-1118.3955555757923,13,-0.9924822049491694,-0.12238902262553963,0.12238902262553963,-0.9924822049491694,-217.7176755269022,-1023.3985160286952,16,-0.9991446191812812,-0.04135250852236723,0.04135250852236723,-0.9991446191812812,-353.7175120710869,-1040.1694837990729],"triangles":[34,28,29,31,32,30,34,29,30,32,34,30,39,27,41,33,34,32,34,41,28,41,27,28,0,41,34,33,0,34,0,39,41,1,39,0,39,35,27,35,26,27,1,35,39,2,35,1,3,42,2,35,40,26,2,42,35,42,40,35,42,36,40,36,25,40,3,36,42,4,6,3,6,37,3,37,36,3,23,24,25,22,23,25,21,22,25,36,37,25,37,21,25,5,6,4,20,21,37,38,20,37,6,38,37,8,38,6,7,8,6,9,10,8,10,11,8,11,38,8,38,19,20,12,18,19,11,12,38,12,19,38,13,18,12,13,16,18,16,17,18,14,16,13,14,15,16,40,25,26],"type":"mesh","transform":{},"slotPose":[1,0,0,1,0,0],"userEdges":[],"width":417,"height":163,"name":"Layer 5","weights":[1,10,1,1,10,1,2,10,0.60656,13,0.39344,2,13,0.9979,16,0.0021,2,13,0.92971,16,0.07029,2,13,0.5178,16,0.4822,2,13,0.23864,16,0.76136,1,16,1,1,16,1,1,16,1,1,16,1,1,16,1,1,16,1,1,16,1,1,16,1,1,16,1,1,16,1,1,16,1,1,16,1,1,16,1,2,13,0.0062,16,0.9938,2,13,0.39847,16,0.60153,2,13,0.66922,16,0.33078,2,13,0.73594,16,0.26406,2,13,0.88337,16,0.11663,2,13,0.94939,16,0.05061,2,10,0.51089,13,0.48911,1,10,1,1,10,1,1,10,1,1,10,1,1,10,1,1,10,1,1,10,1,1,10,1,2,10,0.59399,13,0.40601,2,13,0.99096,16,0.00904,2,13,0.55195,16,0.44805,1,16,1,1,10,1,1,13,1,1,10,1,1,13,1]}],"name":"Layer 5"},{"display":[{"path":"Layer 2","type":"image","name":"Layer 2","transform":{"y":7.71,"skX":74.38,"skY":74.38,"x":69.06}}],"name":"Layer 2"},{"display":[{"vertices":[-7.41,-1203.05,-4.09,-1219.64,12.5,-1240.11,45.13,-1302.59,37.95,-1348.49,28,-1383.33,-15.68,-1398.26,-67.67,-1389.7,-119.65,-1381.13,-177.73,-1318.65,-195.43,-1234.05,-196.54,-1186.49,-173.31,-1164.37,-162.26,-1193.68,-136.27,-1141.69,-108.61,-1140.58,-93.38,-1149.2,-108.48,-1187.31,-102.44,-1184.59,-82.66,-1188.36,-71.64,-1192.44,-69.68,-1179.6,-74.36,-1170.7,-84.93,-1164.65,-91.12,-1156.65,-93.12,-1148.72,-95.03,-1147.33,-108.64,-1111.26,-126.83,-1108.18,-142.62,-1098.59,-150.51,-1085.33,-153.19,-1071.66,-148.68,-1055.58,-142.62,-1043.88,-133.03,-1037.85,-133.03,-1026.14,-142.34,-1032.06,-150.93,-1028.54,-155.87,-1012.46,-157.84,-997.1,-150.09,-973.97,-164.04,-947.56,-180.67,-913.86,-187.11,-888.76,-188.24,-870.14,-186.83,-862.67,-181.9,-854.77,-172.16,-849.28,-175.98,-823.7,-180.49,-801.71,-194.55,-757.09,-200.48,-712.21,-204.15,-680.78,-204.19,-614.01,-190.42,-555.59,-183.79,-524.28,-176.45,-484.2,-174.91,-454.58,-176.34,-408.3,-177.24,-359.12,-179.22,-319.22,-183.17,-275.36,-157.64,-242.09,-111.12,-206.55,-86.32,-175.99,-61.5,-155.97,-46.27,-153.15,-44.58,-175,-34,-148,-18.07,-147.99,10.84,-158.22,26.21,-181.34,34.18,-204.06,35.31,-219.15,39.96,-232.82,61.4,-249.6,63.33,-270.03,76.72,-296.26,81.79,-303.59,92.93,-294.29,121.02,-340.03,133.85,-373.02,144.71,-406.73,129.2,-434.82,95.13,-480.5,65.78,-521.35,36.42,-562.19,35.01,-569.8,23.17,-578.83,25.68,-611.21,35.69,-674.94,41.06,-755.48,48.14,-838.43,42.08,-884.12,31.37,-925.7,2.36,-957.64,-12.31,-972.59,-17.95,-981.18,-9.21,-1010.23,7.95,-1037.51,18.95,-1066.28,31.22,-1100.82,37.99,-1137.64,35.87,-1162.01,27.8,-1174.1,13.84,-1179.04,7.22,-1188.92,-0.11,-1192.57,-120.17,-516.36,-130.51,-733.56,-100.26,-834.84,-104.13,-960.5,-100.59,-1039.82,-86.03,-1091.06,-56.8,-1134.99,-36.82,-1181.09,-51.26,-1221.89,-73.36,-1297.54,-127.76,-1321.35,-126.06,-1235.5,-29.15,-1350.25,-0.25,-1292.44,-12.64,-845.2,-64.89,-346.26,-145.17,-356.8,-54.22,-638.33,15.78,-308.7],"uvs":[0.53036,0.16464,0.53931,0.1515,0.58402,0.1353,0.67197,0.08583,0.65259,0.04948,0.62576,0.0219,0.50801,0.01008,0.36789,0.01686,0.22778,0.02365,0.07127,0.07313,0.02357,0.14012,0.02059,0.17777,0.08319,0.19529,0.11301,0.17208,0.18306,0.21324,0.25759,0.21411,0.29865,0.20729,0.25794,0.17712,0.27422,0.17927,0.32754,0.17628,0.35725,0.17305,0.36254,0.18321,0.34993,0.19027,0.32144,0.19505,0.30475,0.20139,0.29935,0.20766,0.29423,0.20877,0.25755,0.23732,0.20853,0.23977,0.16596,0.24736,0.14468,0.25785,0.13746,0.26868,0.14962,0.28141,0.16596,0.29067,0.1918,0.29545,0.1918,0.30471,0.16672,0.30002,0.14354,0.30282,0.13023,0.31554,0.12491,0.32771,0.14582,0.34602,0.10822,0.36693,0.06337,0.39361,0.046,0.41349,0.04296,0.42823,0.04676,0.43415,0.06006,0.4404,0.08629,0.44475,0.07603,0.465,0.06386,0.48242,0.02596,0.51774,0.00999,0.55329,0.00011,0.57817,0,0.63104,0.03715,0.67729,0.05501,0.70208,0.0748,0.73382,0.07898,0.75726,0.0751,0.7939,0.07268,0.83284,0.06736,0.86444,0.05672,0.89916,0.12551,0.92551,0.25092,0.95364,0.31779,0.97784,0.38468,0.99369,0.42573,0.99592,0.43029,0.97862,0.45881,1,0.50175,1,0.57966,0.9919,0.62109,0.9736,0.64257,0.95561,0.64561,0.94366,0.65816,0.93283,0.71592,0.91955,0.72112,0.90337,0.75722,0.88261,0.77091,0.8768,0.80093,0.88417,0.87662,0.84795,0.9112,0.82183,0.94047,0.79514,0.89866,0.7729,0.80681,0.73673,0.7277,0.70439,0.64858,0.67205,0.64478,0.66602,0.61286,0.65888,0.61962,0.63324,0.6466,0.58278,0.66104,0.51902,0.68013,0.45334,0.66378,0.41717,0.6349,0.38424,0.55671,0.35896,0.51718,0.34712,0.50198,0.34031,0.52554,0.31732,0.57181,0.29572,0.60145,0.27294,0.63452,0.24559,0.65276,0.21645,0.64706,0.19714,0.6253,0.18757,0.58767,0.18366,0.56981,0.17585,0.55005,0.17294,0.22648,0.70835,0.19859,0.53638,0.28012,0.45619,0.26969,0.35668,0.27926,0.29389,0.3185,0.25331,0.39726,0.21853,0.45111,0.18203,0.41216,0.14973,0.35259,0.08983,0.20596,0.07099,0.21055,0.13896,0.47173,0.04811,0.54963,0.09387,0.51627,0.44798,0.37552,0.84302,0.15912,0.83468,0.40423,0.61177,0.59294,0.87276],"edges":[53,54,54,55,55,56,56,57,57,58,58,59,59,60,60,61,61,62,62,63,63,64,64,65,65,66,66,67,67,68,68,69,69,70,70,71,71,72,72,73,73,74,74,75,75,76,76,77,77,78,78,79,79,80,80,81,81,82,82,83,83,84,84,85,85,86,86,87,87,88,88,89,89,90,90,91,91,92,92,93,93,94,94,95,95,96,96,97,97,98,98,99,99,100,100,101,101,102,102,103,103,104,104,105,105,106,106,107,107,0,0,1,1,2,2,3,3,4,4,5,5,6,6,7,7,8,8,9,9,10,10,11,11,12,12,13,13,14,14,15,15,16,16,17,17,18,18,19,19,20,20,21,21,22,22,23,23,24,24,25,25,26,26,27,27,28,28,29,29,30,30,31,31,32,32,33,33,34,34,35,35,36,36,37,37,38,38,39,39,40,40,41,41,42,42,43,43,44,44,45,45,46,46,47,47,48,48,49,49,50,50,51,51,52,52,53],"path":"Layer 7","bonePose":[7,0.30602764218850076,-0.9520226269456764,0.9520226269456764,0.30602764218850076,-90.79557694399186,-1033.8795073718454,8,-0.07515276732177223,-0.9971720320806632,0.9971720320806632,-0.07515276732177223,-48.89251815664664,-1167.0134289105135,12,-0.13208338849587742,-0.9912386082490164,0.9912386082490164,-0.13208338849587742,-52.61107708372793,-1216.3535010578648,5,-0.04571169186996847,-0.9989546742602414,0.9989546742602414,-0.04571169186996847,-83.34,-870.95,4,-0.1128563848734817,0.9936113105200084,-0.9936113105200084,-0.1128563848734817,-87.22,-828.86,6,0.27026438668362784,0.9627861451488188,-0.9627861451488188,0.27026438668362784,-114.63190857389236,-545.3423023719038],"triangles":[83,81,82,84,126,83,83,126,81,126,80,81,78,79,80,126,78,80,85,123,84,123,126,84,108,123,85,126,77,78,126,76,77,86,108,85,121,2,3,122,91,92,74,75,76,126,74,76,88,108,86,125,90,91,4,121,3,93,122,92,109,125,91,125,89,90,120,121,4,126,67,74,94,122,93,67,73,74,122,109,91,110,109,122,114,101,102,105,114,102,103,105,102,5,120,4,87,88,86,104,105,103,67,72,73,63,67,126,95,122,94,67,71,72,115,114,105,6,120,5,114,100,101,123,63,126,67,70,71,125,88,89,125,108,88,111,122,95,67,69,70,113,99,100,114,113,100,121,116,2,107,115,105,96,111,95,116,1,2,106,107,105,111,110,122,113,112,98,113,98,99,117,116,121,120,117,121,108,57,123,0,115,107,116,0,1,57,58,123,67,68,69,97,111,96,116,115,0,7,120,6,112,97,98,58,124,123,112,111,97,63,64,67,62,63,123,22,114,115,116,20,115,7,117,120,21,22,115,118,117,7,20,21,115,8,118,7,124,62,123,54,108,125,117,119,116,65,66,67,64,65,67,53,54,125,60,62,124,22,23,114,119,20,116,111,42,110,119,19,20,27,113,114,26,27,114,23,24,114,24,25,114,109,52,125,52,53,125,25,26,114,35,111,112,119,17,19,60,61,62,41,42,111,42,47,110,118,119,117,42,43,47,49,109,110,17,18,19,29,30,28,28,30,113,32,112,113,30,32,113,35,40,111,56,57,108,27,28,113,30,31,32,32,34,112,48,49,110,39,40,35,17,14,15,34,35,112,47,48,110,32,33,34,118,9,119,40,41,111,119,13,17,51,52,109,54,55,108,13,14,17,38,39,35,49,50,109,9,10,119,55,56,108,9,118,8,43,44,47,10,13,119,58,59,124,37,38,35,50,51,109,36,37,35,59,60,124,44,45,47,45,46,47,10,11,13,11,12,13,17,15,16],"type":"mesh","transform":{},"slotPose":[1,0,0,1,0,0],"userEdges":[],"width":371,"height":1263,"name":"Layer 7","weights":[3,7,0.10966,8,0.70273,12,0.1876,3,7,0.01412,8,0.44593,12,0.53994,2,8,0.14488,12,0.85512,2,8,0.00008,12,0.99992,1,12,1,1,12,1,1,12,1,1,12,1,2,8,0.00238,12,0.99762,2,8,0.08594,12,0.91406,2,8,0.32346,12,0.67654,2,8,0.41221,12,0.58779,2,8,0.42541,12,0.57459,2,8,0.44245,12,0.55755,2,8,0.61228,12,0.38772,2,8,0.62413,12,0.37587,2,8,0.62569,12,0.37431,2,8,0.57075,12,0.42925,2,8,0.59538,12,0.40462,2,8,0.7134,12,0.2866,3,7,0.01579,8,0.83369,12,0.15052,3,7,0.25365,8,0.73481,12,0.01154,2,7,0.68577,8,0.31423,2,7,0.93004,8,0.06996,2,7,0.97967,8,0.02033,2,7,0.99848,8,0.00152,1,7,1,1,7,1,1,7,1,2,5,0.01401,7,0.98599,2,5,0.04064,7,0.95936,2,5,0.07968,7,0.92032,2,5,0.16758,7,0.83242,2,5,0.29008,7,0.70992,2,5,0.46586,7,0.53414,2,5,0.77206,7,0.22794,2,5,0.87369,7,0.12631,2,5,0.89524,7,0.10476,2,5,0.94588,7,0.05412,2,5,0.98279,7,0.01721,2,4,0.00211,5,0.99789,2,4,0.02912,5,0.97088,2,4,0.12538,5,0.87462,2,4,0.23495,5,0.76505,2,4,0.33018,5,0.66982,2,4,0.36317,5,0.63683,2,4,0.41553,5,0.58447,2,4,0.50669,5,0.49331,2,4,0.78268,5,0.21732,2,4,0.91506,5,0.08494,2,4,0.99625,5,0.00375,1,4,1,1,4,1,2,6,0.01734,4,0.98266,2,6,0.35562,4,0.64438,2,6,0.7258,4,0.2742,2,6,0.97042,4,0.02958,2,6,0.99958,4,0.00042,1,6,1,1,6,1,1,6,1,1,6,1,1,6,1,1,6,1,1,6,1,1,6,1,1,6,1,1,6,1,1,6,1,1,6,1,1,6,1,1,6,1,1,6,1,1,6,1,1,6,1,1,6,1,1,6,1,1,6,1,1,6,1,1,6,1,1,6,1,1,6,1,2,6,0.99959,4,0.00041,2,6,0.99595,4,0.00405,2,6,0.9657,4,0.0343,2,6,0.87944,4,0.12056,2,6,0.67461,4,0.32539,2,6,0.6386,4,0.3614,2,6,0.5322,4,0.4678,2,6,0.29254,4,0.70746,3,6,0.07085,4,0.92641,5,0.00274,3,6,0.00342,4,0.89648,5,0.1001,2,4,0.50328,5,0.49672,2,4,0.24733,5,0.75267,2,4,0.09024,5,0.90976,3,4,0.01664,5,0.966,7,0.01736,3,4,0.00277,5,0.92999,7,0.06725,3,4,0.00021,5,0.87228,7,0.12751,2,5,0.55296,7,0.44704,2,5,0.25655,7,0.74345,2,5,0.10016,7,0.89984,3,5,0.01949,7,0.96898,8,0.01153,3,5,0.00064,7,0.90401,8,0.09536,2,7,0.80997,8,0.19003,2,7,0.74324,8,0.25676,3,7,0.62472,8,0.3728,12,0.00248,3,7,0.4684,8,0.51181,12,0.0198,3,7,0.33527,8,0.61055,12,0.05418,1,6,1,1,4,1,2,4,0.85177,5,0.14823,1,5,1,2,5,0.36424,7,0.63576,1,7,1,1,7,1,1,8,1,3,7,0.00002,8,0.29439,12,0.70559,2,8,0.00418,12,0.99582,2,8,0.03637,12,0.96363,2,8,0.29606,12,0.70394,1,12,1,2,8,0.00223,12,0.99777,2,4,0.46479,5,0.53521,1,6,1,1,6,1,2,6,0.08913,4,0.91087,1,6,1]}],"name":"Layer 7"},{"display":[{"path":"Layer 12","type":"image","name":"Layer 12","transform":{"y":1.99,"skX":104.86,"skY":104.86,"x":34.39}}],"name":"Layer 12"},{"display":[{"path":"Layer 6","type":"image","name":"Layer 6","transform":{"y":-32.83,"x":3.18}}],"name":"Layer 6"}],"name":""}],"bone":[{"name":"root","transform":{}},{"transform":{"y":-852.12,"x":-92.65},"name":"bone","parent":"root"},{"transform":{"y":-31.12,"x":-3.79},"name":"bone32","parent":"root"},{"transform":{"y":-1255.67,"x":-418.36},"name":"bone31","parent":"root"},{"length":266,"transform":{"y":23.26,"skX":96.48,"skY":96.48,"x":5.43},"parent":"bone","name":"bone29"},{"length":163,"transform":{"y":-18.83,"skX":-92.62,"skY":-92.62,"x":9.31},"parent":"bone","name":"bone2"},{"length":358,"transform":{"y":-4.76,"skX":-22.16,"skY":-22.16,"x":284.8},"parent":"bone29","name":"bone30"},{"length":136,"transform":{"skX":20.44,"skY":20.44,"x":163.1},"parent":"bone2","name":"bone3"},{"length":49,"transform":{"y":-0.85,"skX":-22.13,"skY":-22.13,"x":139.57},"parent":"bone3","name":"bone4"},{"length":165,"transform":{"y":73.03,"skX":124.49,"skY":124.49,"x":138.88},"parent":"bone3","name":"bone22"},{"length":156,"transform":{"y":-28.45,"skX":-145.23,"skY":-145.23,"x":79.63},"parent":"bone3","name":"bone26"},{"length":142,"transform":{"skX":20.68,"skY":20.68,"x":165.58},"parent":"bone22","name":"bone23"},{"length":154,"transform":{"skX":-3.28,"skY":-3.28,"x":49.48},"parent":"bone4","name":"bone5"},{"length":137,"transform":{"skX":44.44,"skY":44.44,"x":156.37},"parent":"bone26","name":"bone27"},{"length":75,"transform":{"y":-46.63,"skX":-7.26,"skY":-7.26,"x":135.75},"parent":"bone5","name":"bone12"},{"length":54,"transform":{"skX":1.7,"skY":1.7,"x":142.22},"parent":"bone23","name":"bone24"},{"length":105,"transform":{"skX":-4.66,"skY":-4.66,"x":137.03},"parent":"bone27","name":"bone28"},{"length":81,"transform":{"y":41.41,"skX":149.32,"skY":149.32,"x":89.35},"parent":"bone5","name":"bone7"},{"length":145,"transform":{"y":40.1,"skX":23.21,"skY":23.21,"x":115.93},"parent":"bone5","name":"bone6"},{"length":62,"transform":{"y":4.91,"skX":170.69,"skY":170.69,"x":88.42},"parent":"bone5","name":"bone13"},{"length":247,"transform":{"y":23.1,"skX":167.45,"skY":167.45,"x":82.12},"parent":"bone5","name":"bone20"},{"length":51,"transform":{"skX":-20.31,"skY":-20.31,"x":54.08},"parent":"bone24","name":"bone25"},{"length":85,"transform":{"y":0.08,"skX":-11.92,"skY":-11.92,"x":80.5},"parent":"bone7","name":"bone8"},{"length":43,"transform":{"skX":-16.78,"skY":-16.78,"x":62.71},"parent":"bone13","name":"bone14"},{"length":247,"transform":{"x":247.5},"parent":"bone20","name":"bone21"},{"length":106,"transform":{"y":-0.64,"skX":-29.02,"skY":-29.02,"x":86.33},"parent":"bone8","name":"bone9"},{"length":42,"transform":{"skX":-16.34,"skY":-16.34,"x":43.27},"parent":"bone14","name":"bone15"},{"length":85,"transform":{"skX":-1.1,"skY":-1.1,"x":106.46},"parent":"bone9","name":"bone10"},{"length":51,"transform":{"y":-0.31,"skX":-32.52,"skY":-32.52,"x":42.96},"parent":"bone15","name":"bone16"},{"length":40,"transform":{"y":-0.48,"skX":-56.78,"skY":-56.78,"x":51.74},"parent":"bone16","name":"bone17"},{"length":132,"transform":{"y":0.49,"skX":24.73,"skY":24.73,"x":85.97},"parent":"bone10","name":"bone11"},{"length":34,"transform":{"y":-0.36,"skX":-36.65,"skY":-36.65,"x":40.19},"parent":"bone17","name":"bone18"},{"length":59,"transform":{"y":-0.51,"skX":-35.55,"skY":-35.55,"x":34.61},"parent":"bone18","name":"bone19"}],"ik":[],"animation":[{"frame":[],"slot":[],"ffd":[],"duration":52,"ik":[],"name":"Attack A","bone":[{"frame":[{"curve":[0.25,0,1,0],"transform":{},"duration":15},{"transform":{"y":-38.65,"x":122.99},"duration":5},{"curve":[0.25,0,0,1],"transform":{"y":-38.65,"x":122.99},"duration":5},{"curve":[0.245,0,0.711,0.83],"transform":{"y":-25.51,"x":59.66},"duration":10},{"curve":[0.36,0.64,0.695,1],"transform":{"y":-25.51,"x":31.86},"duration":17},{"transform":{},"duration":0}],"name":"bone"},{"frame":[{"curve":[0.25,0,1,0],"transform":{},"duration":15},{"transform":{"skX":3.86,"skY":3.86},"duration":5},{"curve":[0.25,0,0,1],"transform":{"skX":3.86,"skY":3.86},"duration":5},{"transform":{"skX":-10.25,"skY":-10.25},"duration":10},{"curve":[0.25,0,0.75,1],"transform":{"skX":-10.25,"skY":-10.25},"duration":17},{"transform":{},"duration":0}],"name":"bone2"},{"frame":[{"curve":[0.25,0,1,0],"transform":{},"duration":15},{"curve":[0.25,0,0.75,1],"transform":{"skX":2.06,"skY":2.06},"duration":5},{"curve":[0.25,0,0,1],"transform":{"skX":6.1,"skY":6.1},"duration":5},{"transform":{"skX":-2.71,"skY":-2.71},"duration":10},{"curve":[0.25,0,0.75,1],"transform":{"skX":-2.71,"skY":-2.71},"duration":17},{"transform":{},"duration":0}],"name":"bone3"},{"frame":[{"tweenEasing":0,"transform":{},"duration":20},{"curve":[0.25,0,0,1],"transform":{},"duration":5},{"transform":{"skX":-10.96,"skY":-10.96},"duration":10},{"curve":[0.25,0,0.75,1],"transform":{"skX":-10.96,"skY":-10.96},"duration":17},{"transform":{},"duration":0}],"name":"bone4"},{"frame":[{"curve":[0.25,0,1,0],"transform":{},"duration":15},{"transform":{"skX":10.6,"skY":10.6},"duration":5},{"curve":[0.25,0,0,1],"transform":{"skX":10.6,"skY":10.6},"duration":5},{"transform":{"skX":16.04,"skY":16.04},"duration":10},{"curve":[0.25,0,0.75,1],"transform":{"skX":16.04,"skY":16.04},"duration":17},{"transform":{},"duration":0}],"name":"bone5"},{"frame":[{"tweenEasing":0,"transform":{},"duration":20},{"curve":[0.25,0,0,1],"transform":{},"duration":5},{"transform":{"skX":35.91,"skY":35.91},"duration":10},{"curve":[0.25,0,0.75,1],"transform":{"skX":35.91,"skY":35.91},"duration":17},{"transform":{},"duration":0}],"name":"bone6"},{"frame":[{"curve":[0.25,0,1,0],"transform":{},"duration":15},{"transform":{"skX":2.91,"skY":2.91},"duration":5},{"curve":[0.25,0,0,1],"transform":{"skX":2.91,"skY":2.91},"duration":5},{"curve":[0.245,0,0.711,0.83],"transform":{"skX":-30.82,"skY":-30.82},"duration":10},{"curve":[0.36,0.64,0.695,1],"transform":{"skX":-14.09,"skY":-14.09},"duration":17},{"transform":{},"duration":0}],"name":"bone7"},{"frame":[{"tweenEasing":0,"transform":{},"duration":20},{"curve":[0.25,0,0,1],"transform":{},"duration":5},{"transform":{"skX":-2.46,"skY":-2.46},"duration":10},{"curve":[0.25,0,0.75,1],"transform":{"skX":-2.46,"skY":-2.46},"duration":17},{"transform":{},"duration":0}],"name":"bone8"},{"frame":[{"tweenEasing":0,"transform":{},"duration":20},{"curve":[0.25,0,0,1],"transform":{},"duration":5},{"transform":{"skX":32.02,"skY":32.02},"duration":10},{"curve":[0.25,0,0.75,1],"transform":{"skX":32.02,"skY":32.02},"duration":17},{"transform":{},"duration":0}],"name":"bone12"},{"frame":[{"curve":[0.25,0,1,0],"transform":{},"duration":15},{"transform":{"skX":-1.04,"skY":-1.04},"duration":5},{"curve":[0.25,0,0,1],"transform":{"skX":-1.04,"skY":-1.04},"duration":5},{"curve":[0.245,0,0.711,0.83],"transform":{"y":2.59,"skX":-31.79,"skY":-31.79,"x":-18.93},"duration":10},{"curve":[0.305,0.32,0.7224999999999999,1],"transform":{"y":2.59,"skX":-12.3,"skY":-12.3,"x":-18.93},"duration":17},{"transform":{},"duration":0}],"name":"bone20"},{"frame":[{"curve":[0.25,0,1,0],"transform":{},"duration":15},{"transform":{"skX":17.41,"skY":17.41},"duration":5},{"curve":[0.25,0,0,1],"transform":{"skX":17.41,"skY":17.41},"duration":5},{"transform":{"skX":-11.45,"skY":-11.45},"duration":10},{"curve":[0.25,0,0.75,1],"transform":{"skX":-11.45,"skY":-11.45},"duration":17},{"transform":{},"duration":0}],"name":"bone21"},{"frame":[{"curve":[0.25,0,1,0],"transform":{},"duration":15},{"transform":{"skX":21.04,"skY":21.04},"duration":5},{"curve":[0.25,0,0,1],"transform":{"skX":21.04,"skY":21.04},"duration":5},{"curve":[0.245,0,0.711,0.83],"transform":{"skX":-8.35,"skY":-8.35},"duration":10},{"curve":[0.36,0.64,0.695,1],"transform":{"skX":0.48,"skY":0.48},"duration":17},{"transform":{},"duration":0}],"name":"bone22"},{"frame":[{"tweenEasing":0,"transform":{},"duration":20},{"curve":[0.25,0,0,1],"transform":{},"duration":5},{"curve":[0.25,0,0.75,1],"transform":{"skX":-17.84,"skY":-17.84},"duration":10},{"transform":{},"duration":17}],"name":"bone24"},{"frame":[{"curve":[0.25,0,1,0],"transform":{},"duration":15},{"transform":{"y":-7.1,"skX":71.29,"skY":71.29,"x":30.28},"duration":5},{"curve":[0.25,0,0,1],"transform":{"y":-7.1,"skX":71.29,"skY":71.29,"x":30.28},"duration":5},{"curve":[0.245,0,0.711,0.83],"transform":{"y":-7.1,"skX":6.77,"skY":6.77,"x":30.28},"duration":10},{"curve":[0.305,0.32,0.7224999999999999,1],"transform":{"y":-7.1,"skX":1.97,"skY":1.97,"x":30.28},"duration":17},{"transform":{},"duration":0}],"name":"bone26"},{"frame":[{"tweenEasing":0,"transform":{},"duration":20},{"curve":[0.25,0,0,1],"transform":{},"duration":5},{"transform":{"skX":-37.09,"skY":-37.09},"duration":10},{"curve":[0.25,0,0.75,1],"transform":{"skX":-37.09,"skY":-37.09},"duration":17},{"transform":{},"duration":0}],"name":"bone27"},{"frame":[{"curve":[0.258,0,0.619,0.45],"transform":{},"duration":6},{"curve":[0.363,0.44,0.755,1],"transform":{"skX":11.99,"skY":11.99},"duration":9},{"curve":[0.25,0,0.75,1],"transform":{"skX":21.88,"skY":21.88},"duration":5},{"curve":[0.25,0,0,1],"transform":{"skX":25.38,"skY":25.38},"duration":5},{"transform":{"skX":-21.03,"skY":-21.03},"duration":10},{"curve":[0.25,0,0.75,1],"transform":{"skX":-21.03,"skY":-21.03},"duration":17},{"transform":{},"duration":0}],"name":"bone28"},{"frame":[{"curve":[0.25,0,1,0],"transform":{},"duration":15},{"transform":{"skX":1.83,"skY":1.83},"duration":20},{"curve":[0.25,0,0.75,1],"transform":{"skX":1.83,"skY":1.83},"duration":17},{"transform":{},"duration":0}],"name":"bone29"},{"frame":[{"curve":[0.25,0,1,0],"transform":{},"duration":15},{"transform":{"skX":10.44,"skY":10.44},"duration":5},{"curve":[0.25,0,0,1],"transform":{"skX":10.44,"skY":10.44},"duration":5},{"transform":{"skX":3.28,"skY":3.28},"duration":10},{"curve":[0.25,0,0.75,1],"transform":{"skX":3.28,"skY":3.28},"duration":17},{"transform":{},"duration":0}],"name":"bone30"},{"frame":[{"curve":[0.25,0,0.875,0.5],"transform":{},"duration":2},{"tweenEasing":0,"transform":{"skX":42.82,"skY":42.82},"duration":3},{"tweenEasing":0,"transform":{"skX":157.62,"skY":157.62},"duration":4},{"tweenEasing":0,"transform":{"skX":-79.4,"skY":-79.4},"duration":3},{"tweenEasing":0,"transform":{"skX":34.4,"skY":34.4},"duration":3},{"curve":[0.25,0,0.75,1],"transform":{"y":-430.14,"skX":42.8,"skY":42.8,"x":335.12},"duration":5},{"curve":[0.25,0,0,1],"transform":{"y":-443.63,"skX":42.8,"skY":42.8,"x":363.61},"duration":5},{"transform":{"y":1081.86,"skX":48.63,"skY":48.63,"x":-1188.01},"duration":10},{"curve":[0.25,0,0.75,1],"transform":{"y":1081.86,"skX":48.63,"skY":48.63,"x":-1188.01},"duration":17},{"transform":{},"duration":0}],"name":"bone31"},{"frame":[{"transform":{},"duration":52}],"name":"root"},{"frame":[{"transform":{},"duration":52}],"name":"bone32"},{"frame":[{"transform":{},"duration":52}],"name":"bone23"},{"frame":[{"transform":{},"duration":52}],"name":"bone13"},{"frame":[{"transform":{},"duration":52}],"name":"bone14"},{"frame":[{"transform":{},"duration":52}],"name":"bone25"},{"frame":[{"transform":{},"duration":52}],"name":"bone9"},{"frame":[{"transform":{},"duration":52}],"name":"bone15"},{"frame":[{"transform":{},"duration":52}],"name":"bone10"},{"frame":[{"transform":{},"duration":52}],"name":"bone16"},{"frame":[{"transform":{},"duration":52}],"name":"bone17"},{"frame":[{"transform":{},"duration":52}],"name":"bone11"},{"frame":[{"transform":{},"duration":52}],"name":"bone18"},{"frame":[{"transform":{},"duration":52}],"name":"bone19"}]},{"frame":[],"slot":[],"ffd":[],"duration":52,"ik":[],"name":"Attack B","bone":[{"frame":[{"curve":[0.25,0,1,0],"transform":{},"duration":15},{"transform":{"y":-38.65,"x":122.99},"duration":5},{"curve":[0.25,0,0,1],"transform":{"y":-38.65,"x":122.99},"duration":5},{"curve":[0.245,0,0.711,0.83],"transform":{"y":-25.51,"x":59.66},"duration":10},{"curve":[0.36,0.64,0.695,1],"transform":{"y":-25.51,"x":31.86},"duration":17},{"transform":{},"duration":0}],"name":"bone"},{"frame":[{"curve":[0.25,0,1,0],"transform":{},"duration":15},{"curve":[0.25,0,0.75,1],"transform":{"skX":3.86,"skY":3.86},"duration":5},{"curve":[0.25,0,0,1],"transform":{"skX":-0.51,"skY":-0.51},"duration":5},{"transform":{"skX":-10.25,"skY":-10.25},"duration":10},{"curve":[0.25,0,0.75,1],"transform":{"skX":-10.25,"skY":-10.25},"duration":17},{"transform":{},"duration":0}],"name":"bone2"},{"frame":[{"curve":[0.25,0,1,0],"transform":{},"duration":15},{"curve":[0.25,0,0.75,1],"transform":{"skX":2.06,"skY":2.06},"duration":5},{"curve":[0.25,0,0,1],"transform":{"skX":1.7,"skY":1.7},"duration":5},{"transform":{"skX":-2.71,"skY":-2.71},"duration":10},{"curve":[0.25,0,0.75,1],"transform":{"skX":-2.71,"skY":-2.71},"duration":17},{"transform":{},"duration":0}],"name":"bone3"},{"frame":[{"curve":[0.25,0,0.75,1],"transform":{},"duration":15},{"curve":[0.25,0,0.75,1],"transform":{"skX":-6.86,"skY":-6.86},"duration":5},{"curve":[0.25,0,0,1],"transform":{"skX":-6,"skY":-6},"duration":5},{"transform":{"skX":-10.96,"skY":-10.96},"duration":10},{"curve":[0.25,0,0.75,1],"transform":{"skX":-10.96,"skY":-10.96},"duration":17},{"transform":{},"duration":0}],"name":"bone4"},{"frame":[{"curve":[0.25,0,1,0],"transform":{},"duration":15},{"curve":[0.25,0,0.75,1],"transform":{"skX":-1.21,"skY":-1.21},"duration":5},{"curve":[0.25,0,0,1],"transform":{"skX":-2.38,"skY":-2.38},"duration":5},{"transform":{"skX":16.04,"skY":16.04},"duration":10},{"curve":[0.25,0,0.75,1],"transform":{"skX":16.04,"skY":16.04},"duration":17},{"transform":{},"duration":0}],"name":"bone5"},{"frame":[{"tweenEasing":0,"transform":{},"duration":20},{"curve":[0.25,0,0,1],"transform":{},"duration":5},{"transform":{"skX":35.91,"skY":35.91},"duration":10},{"curve":[0.25,0,0.75,1],"transform":{"skX":35.91,"skY":35.91},"duration":17},{"transform":{},"duration":0}],"name":"bone6"},{"frame":[{"curve":[0.25,0,1,0],"transform":{},"duration":15},{"transform":{"skX":2.91,"skY":2.91},"duration":5},{"curve":[0.25,0,0,1],"transform":{"skX":2.91,"skY":2.91},"duration":5},{"curve":[0.245,0,0.711,0.83],"transform":{"skX":-30.82,"skY":-30.82},"duration":10},{"curve":[0.36,0.64,0.695,1],"transform":{"skX":-14.09,"skY":-14.09},"duration":17},{"transform":{},"duration":0}],"name":"bone7"},{"frame":[{"tweenEasing":0,"transform":{},"duration":20},{"curve":[0.25,0,0,1],"transform":{},"duration":5},{"transform":{"skX":-2.46,"skY":-2.46},"duration":10},{"curve":[0.25,0,0.75,1],"transform":{"skX":-2.46,"skY":-2.46},"duration":17},{"transform":{},"duration":0}],"name":"bone8"},{"frame":[{"tweenEasing":0,"transform":{},"duration":20},{"curve":[0.25,0,0,1],"transform":{},"duration":5},{"transform":{"skX":32.02,"skY":32.02},"duration":10},{"curve":[0.25,0,0.75,1],"transform":{"skX":32.02,"skY":32.02},"duration":17},{"transform":{},"duration":0}],"name":"bone12"},{"frame":[{"curve":[0.25,0,1,0],"transform":{},"duration":15},{"transform":{"skX":-1.04,"skY":-1.04},"duration":5},{"curve":[0.25,0,0,1],"transform":{"skX":-1.04,"skY":-1.04},"duration":5},{"curve":[0.245,0,0.711,0.83],"transform":{"y":2.59,"skX":-31.79,"skY":-31.79,"x":-18.93},"duration":10},{"curve":[0.305,0.32,0.7224999999999999,1],"transform":{"y":2.59,"skX":-12.3,"skY":-12.3,"x":-18.93},"duration":17},{"transform":{},"duration":0}],"name":"bone20"},{"frame":[{"curve":[0.25,0,1,0],"transform":{},"duration":15},{"transform":{"skX":17.41,"skY":17.41},"duration":5},{"curve":[0.25,0,0,1],"transform":{"skX":17.41,"skY":17.41},"duration":5},{"transform":{"skX":-11.45,"skY":-11.45},"duration":10},{"curve":[0.25,0,0.75,1],"transform":{"skX":-11.45,"skY":-11.45},"duration":17},{"transform":{},"duration":0}],"name":"bone21"},{"frame":[{"curve":[0.25,0,1,0],"transform":{},"duration":15},{"transform":{"skX":21.04,"skY":21.04},"duration":5},{"curve":[0.25,0,0,1],"transform":{"skX":21.04,"skY":21.04},"duration":5},{"curve":[0.245,0,0.711,0.83],"transform":{"skX":-8.35,"skY":-8.35},"duration":10},{"curve":[0.36,0.64,0.695,1],"transform":{"skX":0.48,"skY":0.48},"duration":17},{"transform":{},"duration":0}],"name":"bone22"},{"frame":[{"tweenEasing":0,"transform":{},"duration":20},{"curve":[0.25,0,0,1],"transform":{},"duration":5},{"curve":[0.25,0,0.75,1],"transform":{"skX":-17.84,"skY":-17.84},"duration":10},{"transform":{},"duration":17}],"name":"bone24"},{"frame":[{"curve":[0.25,0,1,0],"transform":{},"duration":15},{"curve":[0.25,0,0.75,1],"transform":{"y":-0.29,"skX":-24.9,"skY":-24.9,"x":-0.63},"duration":5},{"curve":[0.25,0,0,1],"transform":{"y":10.13,"skX":-35.7,"skY":-35.7,"x":11.28},"duration":5},{"curve":[0.2475,0,0.7304999999999999,0.915],"transform":{"y":-7.4,"skX":31.64,"skY":31.64,"x":10.08},"duration":10},{"curve":[0.305,0.32,0.7224999999999999,1],"transform":{"y":-4.86,"skX":32.63,"skY":32.63,"x":21.03},"duration":17},{"transform":{},"duration":0}],"name":"bone26"},{"frame":[{"curve":[0.25,0,0.75,1],"transform":{},"duration":15},{"transform":{"skX":-18.08,"skY":-18.08},"duration":5},{"curve":[0.25,0,0,1],"transform":{"skX":-18.08,"skY":-18.08},"duration":5},{"curve":[0.25,0,0.75,1],"transform":{"skX":-26.38,"skY":-26.38},"duration":10},{"curve":[0.25,0,0.75,1],"transform":{"skX":-27.29,"skY":-27.29},"duration":17},{"transform":{},"duration":0}],"name":"bone27"},{"frame":[{"curve":[0.258,0,0.619,0.45],"transform":{},"duration":6},{"curve":[0.363,0.44,0.755,1],"transform":{"skX":11.99,"skY":11.99},"duration":9},{"transform":{"skX":21.88,"skY":21.88},"duration":5},{"curve":[0.25,0,0,1],"transform":{"skX":21.88,"skY":21.88},"duration":5},{"transform":{"skX":-21.03,"skY":-21.03},"duration":10},{"curve":[0.25,0,0.75,1],"transform":{"skX":-21.03,"skY":-21.03},"duration":17},{"transform":{},"duration":0}],"name":"bone28"},{"frame":[{"curve":[0.25,0,1,0],"transform":{},"duration":15},{"transform":{"skX":1.83,"skY":1.83},"duration":20},{"curve":[0.25,0,0.75,1],"transform":{"skX":1.83,"skY":1.83},"duration":17},{"transform":{},"duration":0}],"name":"bone29"},{"frame":[{"curve":[0.25,0,1,0],"transform":{},"duration":15},{"transform":{"skX":10.44,"skY":10.44},"duration":5},{"curve":[0.25,0,0,1],"transform":{"skX":10.44,"skY":10.44},"duration":5},{"transform":{"skX":3.28,"skY":3.28},"duration":10},{"curve":[0.25,0,0.75,1],"transform":{"skX":3.28,"skY":3.28},"duration":17},{"transform":{},"duration":0}],"name":"bone30"},{"frame":[{"curve":[0.25,0,0.875,0.5],"transform":{},"duration":2},{"tweenEasing":0,"transform":{"skX":42.82,"skY":42.82},"duration":3},{"tweenEasing":0,"transform":{"skX":157.62,"skY":157.62},"duration":4},{"tweenEasing":0,"transform":{"skX":-79.4,"skY":-79.4},"duration":3},{"tweenEasing":0,"transform":{"skX":34.4,"skY":34.4},"duration":3},{"curve":[0.25,0,0.75,1],"transform":{"y":284.76,"skX":87.2,"skY":87.2,"x":640.53},"duration":5},{"curve":[0.25,0,0,1],"transform":{"y":269.14,"skX":87.2,"skY":87.2,"x":880.1},"duration":5},{"transform":{"y":359.89,"skX":87.03,"skY":87.03,"x":-908.03},"duration":10},{"curve":[0.25,0,0.75,1],"transform":{"y":359.89,"skX":87.03,"skY":87.03,"x":-908.03},"duration":17},{"transform":{},"duration":0}],"name":"bone31"},{"frame":[{"transform":{},"duration":52}],"name":"root"},{"frame":[{"transform":{},"duration":52}],"name":"bone32"},{"frame":[{"transform":{},"duration":52}],"name":"bone23"},{"frame":[{"transform":{},"duration":52}],"name":"bone13"},{"frame":[{"transform":{},"duration":52}],"name":"bone14"},{"frame":[{"transform":{},"duration":52}],"name":"bone25"},{"frame":[{"transform":{},"duration":52}],"name":"bone9"},{"frame":[{"transform":{},"duration":52}],"name":"bone15"},{"frame":[{"transform":{},"duration":52}],"name":"bone10"},{"frame":[{"transform":{},"duration":52}],"name":"bone16"},{"frame":[{"transform":{},"duration":52}],"name":"bone17"},{"frame":[{"transform":{},"duration":52}],"name":"bone11"},{"frame":[{"transform":{},"duration":52}],"name":"bone18"},{"frame":[{"transform":{},"duration":52}],"name":"bone19"}]},{"frame":[],"slot":[],"ffd":[],"duration":58,"ik":[],"name":"Attack C","bone":[{"frame":[{"curve":[0.25,0,1,0],"transform":{},"duration":14},{"curve":[0.25,0,0.75,1],"transform":{"y":-50.93,"x":87},"duration":5},{"transform":{"y":-64.14,"x":115.63},"duration":6},{"curve":[0.25,0,0,1],"transform":{"y":-64.14,"x":115.63},"duration":5},{"curve":[0.25,0,0.56,0.76],"transform":{"y":-14.28,"x":5.01},"duration":28},{"transform":{},"duration":0}],"name":"bone"},{"frame":[{"curve":[0.25,0,1,0],"transform":{},"duration":14},{"curve":[0.25,0,0.75,1],"transform":{"skX":4.48,"skY":4.48},"duration":5},{"curve":[0.25,0,0.75,1],"transform":{"skX":6.8,"skY":6.8},"duration":6},{"curve":[0.25,0,0,1],"transform":{"skX":10.28,"skY":10.28},"duration":5},{"curve":[0.25,0,0.56,0.76],"transform":{"skX":-1.05,"skY":-1.05},"duration":28},{"transform":{},"duration":0}],"name":"bone2"},{"frame":[{"curve":[0.25,0,1,0],"transform":{},"duration":14},{"curve":[0.25,0,0.75,1],"transform":{"skX":2.73,"skY":2.73},"duration":5},{"transform":{"skX":6.82,"skY":6.82},"duration":6},{"curve":[0.25,0,0,1],"transform":{"skX":6.82,"skY":6.82},"duration":5},{"curve":[0.25,0,0.56,0.76],"transform":{"skX":-3.34,"skY":-3.34},"duration":28},{"transform":{},"duration":0}],"name":"bone3"},{"frame":[{"tweenEasing":0,"transform":{},"duration":25},{"curve":[0.25,0,0,1],"transform":{},"duration":5},{"curve":[0.25,0,0.56,0.76],"transform":{"skX":-6.16,"skY":-6.16},"duration":28},{"transform":{},"duration":0}],"name":"bone4"},{"frame":[{"curve":[0.25,0,1,0],"transform":{},"duration":14},{"transform":{"skX":-11.94,"skY":-11.94},"duration":11},{"curve":[0.25,0,0,1],"transform":{"skX":-11.94,"skY":-11.94},"duration":5},{"curve":[0.25,0,0.56,0.76],"transform":{"skX":31.3,"skY":31.3},"duration":28},{"transform":{},"duration":0}],"name":"bone6"},{"frame":[{"curve":[0.25,0,1,0],"transform":{},"duration":14},{"curve":[0.25,0,0.75,1],"transform":{"skX":13.32,"skY":13.32},"duration":5},{"transform":{"skX":18.54,"skY":18.54},"duration":6},{"curve":[0.25,0,0,1],"transform":{"skX":18.54,"skY":18.54},"duration":5},{"curve":[0.25,0,0.56,0.76],"transform":{"skX":-31.4,"skY":-31.4},"duration":28},{"transform":{},"duration":0}],"name":"bone7"},{"frame":[{"tweenEasing":0,"transform":{},"duration":25},{"curve":[0.25,0,0,1],"transform":{},"duration":5},{"curve":[0.25,0,0.56,0.76],"transform":{"skX":-2.81,"skY":-2.81},"duration":28},{"transform":{},"duration":0}],"name":"bone8"},{"frame":[{"curve":[0.25,0,1,0],"transform":{},"duration":14},{"transform":{"skX":-14.45,"skY":-14.45},"duration":11},{"curve":[0.25,0,0,1],"transform":{"skX":-14.45,"skY":-14.45},"duration":5},{"curve":[0.25,0,0.56,0.76],"transform":{"skX":29.88,"skY":29.88},"duration":28},{"transform":{},"duration":0}],"name":"bone12"},{"frame":[{"tweenEasing":0,"transform":{},"duration":25},{"curve":[0.25,0,0,1],"transform":{},"duration":5},{"curve":[0.25,0,0.56,0.76],"transform":{"skX":-4.65,"skY":-4.65},"duration":28},{"transform":{},"duration":0}],"name":"bone19"},{"frame":[{"curve":[0.25,0,1,0],"transform":{},"duration":14},{"transform":{"skX":5.39,"skY":5.39},"duration":11},{"curve":[0.25,0,0,1],"transform":{"skX":5.39,"skY":5.39},"duration":5},{"curve":[0.25,0,0.56,0.76],"transform":{"skX":-5.27,"skY":-5.27},"duration":28},{"transform":{},"duration":0}],"name":"bone20"},{"frame":[{"curve":[0.25,0,1,0],"transform":{},"duration":14},{"transform":{"skX":18.08,"skY":18.08},"duration":11},{"curve":[0.25,0,0,1],"transform":{"skX":18.08,"skY":18.08},"duration":5},{"curve":[0.25,0,0.56,0.76],"transform":{"skX":-8.83,"skY":-8.83},"duration":28},{"transform":{},"duration":0}],"name":"bone21"},{"frame":[{"curve":[0.25,0,1,0],"transform":{},"duration":14},{"curve":[0.25,0,0.75,1],"transform":{"y":-12.79,"skX":156.19,"skY":156.19,"x":0.89},"duration":5},{"transform":{"y":-12.79,"skX":160.09,"skY":160.09,"x":0.89},"duration":6},{"curve":[0.25,0,0,1],"transform":{"y":-12.79,"skX":160.09,"skY":160.09,"x":0.89},"duration":5},{"curve":[0.25,0,0.56,0.76],"transform":{"y":-0.58,"skX":0.15,"skY":0.15,"x":0.19},"duration":28},{"transform":{},"duration":0}],"name":"bone22"},{"frame":[{"curve":[0.25,0,1,0],"transform":{},"duration":14},{"transform":{"skX":18.86,"skY":18.86},"duration":11},{"curve":[0.25,0,0,1],"transform":{"skX":18.86,"skY":18.86},"duration":5},{"curve":[0.25,0,0.56,0.76],"transform":{"skX":-2.13,"skY":-2.13},"duration":28},{"transform":{},"duration":0}],"name":"bone23"},{"frame":[{"tweenEasing":0,"transform":{},"duration":25},{"curve":[0.25,0,0,1],"transform":{},"duration":5},{"curve":[0.25,0,0.56,0.76],"transform":{"skX":-9.64,"skY":-9.64},"duration":28},{"transform":{},"duration":0}],"name":"bone24"},{"frame":[{"curve":[0.25,0,1,0],"transform":{},"duration":14},{"curve":[0.25,0,0.75,1],"transform":{"y":32.66,"skX":72.19,"skY":72.19,"x":19.47},"duration":5},{"transform":{"y":32.66,"skX":74.56,"skY":74.56,"x":19.47},"duration":6},{"curve":[0.25,0,0,1],"transform":{"y":32.66,"skX":74.56,"skY":74.56,"x":19.47},"duration":5},{"transform":{"y":10.92,"skX":-34.47,"skY":-34.47,"x":4.64},"duration":5},{"curve":[0.25,0,0.56,0.76],"transform":{"y":10.92,"skX":-34.47,"skY":-34.47,"x":4.64},"duration":23},{"transform":{},"duration":0}],"name":"bone26"},{"frame":[{"tweenEasing":0,"transform":{},"duration":25},{"curve":[0.25,0,0,1],"transform":{},"duration":5},{"curve":[0.25,0,0.56,0.76],"transform":{"skX":-32.78,"skY":-32.78},"duration":28},{"transform":{},"duration":0}],"name":"bone27"},{"frame":[{"tweenEasing":0,"transform":{},"duration":25},{"curve":[0.25,0,0,1],"transform":{},"duration":5},{"curve":[0.25,0,0.56,0.76],"transform":{"skX":6.68,"skY":6.68},"duration":28},{"transform":{},"duration":0}],"name":"bone29"},{"frame":[{"tweenEasing":0,"transform":{},"duration":25},{"curve":[0.25,0,0,1],"transform":{},"duration":5},{"curve":[0.25,0,0.56,0.76],"transform":{"skX":-8.77,"skY":-8.77},"duration":28},{"transform":{},"duration":0}],"name":"bone30"},{"frame":[{"curve":[0.25,0,1,0],"transform":{},"duration":14},{"curve":[0.25,0,0.75,1],"transform":{"y":-326.48},"duration":5},{"curve":[0.25,0,0.75,1],"transform":{"y":-389.04},"duration":6},{"curve":[0.25,0,0,1],"transform":{"y":-445.74},"duration":5},{"transform":{"y":1032.24},"duration":5},{"curve":[0.25,0,0.75,1],"transform":{"y":1032.24},"duration":23},{"transform":{},"duration":0}],"name":"bone31"},{"frame":[{"curve":[0.25,0,1,0],"transform":{},"duration":14},{"transform":{"scX":0.92,"x":52.92},"duration":16},{"curve":[0.25,0,0.56,0.76],"transform":{"scX":0.92,"x":52.92},"duration":28},{"transform":{},"duration":0}],"name":"bone32"},{"frame":[{"transform":{},"duration":58}],"name":"root"},{"frame":[{"transform":{},"duration":58}],"name":"bone5"},{"frame":[{"transform":{},"duration":58}],"name":"bone28"},{"frame":[{"transform":{},"duration":58}],"name":"bone13"},{"frame":[{"transform":{},"duration":58}],"name":"bone14"},{"frame":[{"transform":{},"duration":58}],"name":"bone25"},{"frame":[{"transform":{},"duration":58}],"name":"bone9"},{"frame":[{"transform":{},"duration":58}],"name":"bone15"},{"frame":[{"transform":{},"duration":58}],"name":"bone10"},{"frame":[{"transform":{},"duration":58}],"name":"bone16"},{"frame":[{"transform":{},"duration":58}],"name":"bone17"},{"frame":[{"transform":{},"duration":58}],"name":"bone11"},{"frame":[{"transform":{},"duration":58}],"name":"bone18"}]},{"frame":[],"slot":[],"ffd":[],"duration":30,"ik":[],"name":"Damage","bone":[{"frame":[{"curve":[0.25,0,0,1],"transform":{},"duration":10},{"curve":[0.25,0,0.75,1],"transform":{"x":141.01},"duration":20},{"transform":{},"duration":0}],"name":"bone"},{"frame":[{"curve":[0.25,0,0,1],"transform":{},"duration":10},{"curve":[0.25,0,0.75,1],"transform":{"skX":-3.28,"skY":-3.28},"duration":20},{"transform":{},"duration":0}],"name":"bone2"},{"frame":[{"curve":[0.25,0,0,1],"transform":{},"duration":10},{"curve":[0.25,0,0.75,1],"transform":{"skX":-4.17,"skY":-4.17},"duration":20},{"transform":{},"duration":0}],"name":"bone3"},{"frame":[{"curve":[0.25,0,0,1],"transform":{},"duration":10},{"curve":[0.25,0,0.75,1],"transform":{"skX":-4.76,"skY":-4.76},"duration":20},{"transform":{},"duration":0}],"name":"bone4"},{"frame":[{"curve":[0.25,0,0,1],"transform":{},"duration":10},{"curve":[0.25,0,0.75,1],"transform":{"skX":-26.39,"skY":-26.39},"duration":20},{"transform":{},"duration":0}],"name":"bone6"},{"frame":[{"curve":[0.25,0,0,1],"transform":{},"duration":10},{"curve":[0.25,0,0.75,1],"transform":{"skX":21.28,"skY":21.28},"duration":20},{"transform":{},"duration":0}],"name":"bone7"},{"frame":[{"curve":[0.25,0,0,1],"transform":{},"duration":10},{"curve":[0.25,0,0.75,1],"transform":{"skX":8.84,"skY":8.84},"duration":20},{"transform":{},"duration":0}],"name":"bone9"},{"frame":[{"curve":[0.25,0,0,1],"transform":{},"duration":10},{"curve":[0.25,0,0.75,1],"transform":{"skX":-6.51,"skY":-6.51},"duration":20},{"transform":{},"duration":0}],"name":"bone12"},{"frame":[{"curve":[0.25,0,0,1],"transform":{},"duration":10},{"curve":[0.25,0,0.75,1],"transform":{"skX":-9.1,"skY":-9.1},"duration":20},{"transform":{},"duration":0}],"name":"bone19"},{"frame":[{"curve":[0.25,0,0,1],"transform":{},"duration":10},{"curve":[0.25,0,0.75,1],"transform":{"y":-1.13,"skX":23.9,"skY":23.9,"x":-3.15},"duration":20},{"transform":{},"duration":0}],"name":"bone20"},{"frame":[{"curve":[0.25,0,0,1],"transform":{},"duration":10},{"curve":[0.25,0,0.75,1],"transform":{"skX":12.27,"skY":12.27},"duration":20},{"transform":{},"duration":0}],"name":"bone21"},{"frame":[{"curve":[0.25,0,0,1],"transform":{},"duration":10},{"curve":[0.25,0,0.75,1],"transform":{"skX":7.55,"skY":7.55},"duration":20},{"transform":{},"duration":0}],"name":"bone22"},{"frame":[{"curve":[0.25,0,0,1],"transform":{},"duration":10},{"curve":[0.25,0,0.75,1],"transform":{"skX":1.74,"skY":1.74},"duration":20},{"transform":{},"duration":0}],"name":"bone26"},{"frame":[{"curve":[0.25,0,0,1],"transform":{},"duration":10},{"curve":[0.25,0,0.75,1],"transform":{"skX":15.98,"skY":15.98},"duration":20},{"transform":{},"duration":0}],"name":"bone29"},{"frame":[{"curve":[0.25,0,0,1],"transform":{},"duration":10},{"curve":[0.25,0,0.75,1],"transform":{"skX":-21.27,"skY":-21.27,"x":55.52},"duration":20},{"transform":{},"duration":0}],"name":"bone31"},{"frame":[{"transform":{},"duration":30}],"name":"root"},{"frame":[{"transform":{},"duration":30}],"name":"bone32"},{"frame":[{"transform":{},"duration":30}],"name":"bone30"},{"frame":[{"transform":{},"duration":30}],"name":"bone27"},{"frame":[{"transform":{},"duration":30}],"name":"bone5"},{"frame":[{"transform":{},"duration":30}],"name":"bone23"},{"frame":[{"transform":{},"duration":30}],"name":"bone24"},{"frame":[{"transform":{},"duration":30}],"name":"bone28"},{"frame":[{"transform":{},"duration":30}],"name":"bone13"},{"frame":[{"transform":{},"duration":30}],"name":"bone8"},{"frame":[{"transform":{},"duration":30}],"name":"bone14"},{"frame":[{"transform":{},"duration":30}],"name":"bone25"},{"frame":[{"transform":{},"duration":30}],"name":"bone15"},{"frame":[{"transform":{},"duration":30}],"name":"bone10"},{"frame":[{"transform":{},"duration":30}],"name":"bone16"},{"frame":[{"transform":{},"duration":30}],"name":"bone17"},{"frame":[{"transform":{},"duration":30}],"name":"bone11"},{"frame":[{"transform":{},"duration":30}],"name":"bone18"}]},{"frame":[],"slot":[],"ffd":[],"duration":60,"ik":[],"name":"Idle","bone":[{"frame":[{"curve":[0.25,0,0.75,1],"transform":{},"duration":30},{"curve":[0.25,0,0.75,1],"transform":{"y":50.4},"duration":30},{"transform":{},"duration":0}],"name":"bone"},{"frame":[{"curve":[0.25,0,0.75,1],"transform":{},"duration":29},{"curve":[0.25,0,0.75,1],"transform":{"skX":3.8,"skY":3.8},"duration":31},{"transform":{},"duration":0}],"name":"bone2"},{"frame":[{"curve":[0.25,0,0.75,1],"transform":{},"duration":29},{"curve":[0.25,0,0.75,1],"transform":{"skX":-3.22,"skY":-3.22},"duration":31},{"transform":{},"duration":0}],"name":"bone3"},{"frame":[{"curve":[0.25,0,0.75,1],"transform":{},"duration":32},{"curve":[0.25,0,0.75,1],"transform":{"skX":7.71,"skY":7.71},"duration":28},{"transform":{},"duration":0}],"name":"bone6"},{"frame":[{"curve":[0.25,0,0.75,1],"transform":{},"duration":21},{"curve":[0.25,0,0.75,1],"transform":{"skX":-21.15,"skY":-21.15},"duration":39},{"transform":{},"duration":0}],"name":"bone7"},{"frame":[{"curve":[0.25,0,0.75,1],"transform":{},"duration":29},{"curve":[0.25,0,0.75,1],"transform":{"skX":-10.52,"skY":-10.52},"duration":31},{"transform":{},"duration":0}],"name":"bone8"},{"frame":[{"curve":[0.25,0,0.75,1],"transform":{},"duration":31},{"curve":[0.25,0,0.75,1],"transform":{"skX":-2.64,"skY":-2.64},"duration":29},{"transform":{},"duration":0}],"name":"bone9"},{"frame":[{"curve":[0.25,0,0.75,1],"transform":{},"duration":29},{"curve":[0.25,0,0.75,1],"transform":{"skX":12.44,"skY":12.44},"duration":31},{"transform":{},"duration":0}],"name":"bone12"},{"frame":[{"curve":[0.25,0,0.75,1],"transform":{},"duration":30},{"curve":[0.25,0,0.75,1],"transform":{"skX":0.31,"skY":0.31},"duration":30},{"transform":{},"duration":0}],"name":"bone15"},{"frame":[{"curve":[0.25,0,0.75,1],"transform":{},"duration":30},{"curve":[0.25,0,0.75,1],"transform":{"skX":-4.76,"skY":-4.76},"duration":30},{"transform":{},"duration":0}],"name":"bone20"},{"frame":[{"curve":[0.25,0,0.75,1],"transform":{},"duration":33},{"curve":[0.25,0,0.75,1],"transform":{"skX":-13.2,"skY":-13.2},"duration":27},{"transform":{},"duration":0}],"name":"bone21"},{"frame":[{"curve":[0.25,0,0.75,1],"transform":{},"duration":31},{"curve":[0.25,0,0.75,1],"transform":{"skX":-10.46,"skY":-10.46},"duration":29},{"transform":{},"duration":0}],"name":"bone22"},{"frame":[{"curve":[0.25,0,0.75,1],"transform":{},"duration":28},{"curve":[0.25,0,0.75,1],"transform":{"skX":-10.11,"skY":-10.11},"duration":32},{"transform":{},"duration":0}],"name":"bone23"},{"frame":[{"curve":[0.25,0,0.75,1],"transform":{},"duration":32},{"curve":[0.25,0,0.75,1],"transform":{"skX":-10.49,"skY":-10.49},"duration":28},{"transform":{},"duration":0}],"name":"bone24"},{"frame":[{"curve":[0.25,0,0.75,1],"transform":{},"duration":32},{"curve":[0.25,0,0.75,1],"transform":{"skX":7.78,"skY":7.78},"duration":28},{"transform":{},"duration":0}],"name":"bone26"},{"frame":[{"curve":[0.25,0,0.75,1],"transform":{},"duration":31},{"curve":[0.25,0,0.75,1],"transform":{"skX":-8.67,"skY":-8.67},"duration":29},{"transform":{},"duration":0}],"name":"bone28"},{"frame":[{"curve":[0.25,0,0.75,1],"transform":{},"duration":29},{"curve":[0.25,0,0.75,1],"transform":{"skX":7.31,"skY":7.31},"duration":31},{"transform":{},"duration":0}],"name":"bone29"},{"frame":[{"curve":[0.25,0,0.75,1],"transform":{},"duration":31},{"curve":[0.25,0,0.75,1],"transform":{"y":-44.64},"duration":29},{"transform":{},"duration":0}],"name":"bone31"},{"frame":[{"curve":[0.25,0,0.75,1],"transform":{},"duration":30},{"curve":[0.25,0,0.75,1],"transform":{"scX":1.16},"duration":30},{"transform":{},"duration":0}],"name":"bone32"},{"frame":[{"transform":{},"duration":60}],"name":"root"},{"frame":[{"transform":{},"duration":60}],"name":"bone30"},{"frame":[{"transform":{},"duration":60}],"name":"bone4"},{"frame":[{"transform":{},"duration":60}],"name":"bone27"},{"frame":[{"transform":{},"duration":60}],"name":"bone5"},{"frame":[{"transform":{},"duration":60}],"name":"bone13"},{"frame":[{"transform":{},"duration":60}],"name":"bone14"},{"frame":[{"transform":{},"duration":60}],"name":"bone25"},{"frame":[{"transform":{},"duration":60}],"name":"bone10"},{"frame":[{"transform":{},"duration":60}],"name":"bone16"},{"frame":[{"transform":{},"duration":60}],"name":"bone17"},{"frame":[{"transform":{},"duration":60}],"name":"bone11"},{"frame":[{"transform":{},"duration":60}],"name":"bone18"},{"frame":[{"transform":{},"duration":60}],"name":"bone19"}]}],"defaultActions":[{"gotoAndPlay":"Attack A"}],"slot":[{"name":"Layer 13","parent":"bone32","color":{}},{"z":1,"name":"Layer 12","parent":"bone12","color":{}},{"z":2,"name":"Layer 10","parent":"root","color":{}},{"z":3,"name":"Layer 5","parent":"root","color":{}},{"z":4,"name":"Layer 7","parent":"root","color":{}},{"z":5,"name":"Layer 6","parent":"bone31","color":{}},{"z":6,"name":"Layer 4","parent":"root","color":{}},{"z":7,"name":"Layer 3","parent":"root","color":{}},{"z":8,"name":"Layer 2","parent":"bone6","color":{}},{"z":9,"name":"Layer 11","parent":"root","color":{}}],"name":"Yukino"}],"name":"Yukino","version":"5.0"}